1,0.21282794719930806,-0.0016861374192514297,-0.057918137838115356,0.20262290857961066,0.06986079953249004,-0.017314874129590426,-0.364052725819187,0.05103236986817269,0.007257677595988942,0.16704647033546524,-0.3997092210526389,0.19807778690514216,0.008002065497371138,0.25089100262579733,-0.4478640976283119,-0.24176950811717732,0.19807778690514216,0.0,0.2571576162205581,-0.6638614926205034,-0.024036661222365724,-0.29725452837684757
2,0.3852109452685827,0.08511333760068278,0.02784366568280334,-0.004012474037620398,0.2043671625808121,-0.011805883462678106,0.048233895118502575,0.06023546188732987,0.04134356014266782,0.0692834383556579,-0.6332125132284475,0.12314084663918447,0.0,-0.03665100147107257,-0.3886855826536081,-0.2617333373872867,0.12314084663918447,0.0,0.09270675704224861,-0.7526193438749076,-0.027157334679303043,-1.4087526251406681
4,0.8123777007636497,0.0402476605405773,0.0849975317083407,0.31826259733553725,0.3011146649586375,0.061934793603971985,0.03505798125705258,0.1257183555939506,0.07271118880823567,-0.08664821315729127,-0.49627118050446134,-0.0016212330236956246,0.0,-0.018112297872492578,-0.37865276948278265,-0.18453309328278011,-0.0016212330236956246,0.0,0.29173104767461044,-0.8397967150591381,-0.03323249325352935,-1.6310492890423558
8,0.5197949741942303,0.011159363656382874,-0.12379777949015315,0.4963992491589948,0.1044183924810604,-0.1879590867675939,0.12018197703336361,0.1787940320278028,0.08381963167836098,-0.1360963112836023,-0.5248052263292556,-0.002300234428703453,0.0,-0.03608476009969677,-0.35841413098868524,-0.26410241209577556,-0.002300234428703453,0.0,0.3308146506122868,-0.9720215572719767,-0.017394396524471643,-0.9253543792752665
16,0.619708697499614,0.05572851961264586,-0.0917026199896102,0.5542373913947747,0.1399901532084752,-0.1623131438202589,0.041111817154562816,0.263967519856645,0.10602946610526925,-0.1372697510303448,-0.6987520230826869,-0.001358358614823401,0.0,-0.06299860692447452,-0.45598351920251423,-0.31568128937121503,-0.001358358614823401,0.0,-0.19866756658098114,-0.6228441468576832,-0.013151702059541378,-1.7852338175547804
32,0.5815878932408839,0.030725030913355836,-0.05415140195571562,0.6192846037243703,0.11275697610286775,-0.12135418224298795,-0.14321341676299654,-0.27505098435023295,0.10730072067159434,-0.12975893870609834,-0.7162864310820469,-0.0012532702097490858,0.0,-0.06921471746488837,-0.4529964830556241,-0.32258089905788456,-0.0012532702097490858,0.0,-0.2118498649136577,-0.6179937612873002,-0.014948473377440513,-2.2409496567353973
64,0.2128303444736467,-0.013712803253825909,0.1776608928422047,0.9066981112110355,-0.1704892420174952,-0.15353189715942028,-0.07497899428432103,-0.37941072001753634,0.13609887991563316,-0.20876152311917376,-0.8643517464402254,-0.0012483471586029954,0.0,-0.029341547395411765,-0.5244546035540959,-0.5180687714512875,-0.0012483471586029954,0.0,-0.1332166042370822,-0.9386483181637086,0.0,-2.520009370312111
128,0.27547558540885725,0.05983599973369832,0.2349153453243507,0.8621912856546103,-0.023584999549961197,0.17124658172912158,-0.17195666792410397,-0.16809699970476222,0.13991763298530402,-0.17532789343255514,-0.9278955033723785,-0.0011804211545604776,0.0,0.0,-0.5673077969965682,-0.5347351786538082,-0.0011804211545604776,0.0,0.0,-1.102042975650372,0.0,-3.0323052691553816
129,-0.15641308845590002,-0.022125951517634426,-0.5314626051411477,0.2691507042183002,0.06315757753435734,-0.027736739007377022,-0.3868695085492443,-0.3824977666274523,0.0909272907490984,0.0,-0.7169440507403866,0.0,0.0,-0.17688194693655493,-0.19576278351691767,-0.3442993202869175,0.0,0.0,-0.19898665330005236,-0.5179573974403384,0.0,-1.3830228284264976
65,0.3298239666282423,-0.03758025752571656,-0.012102495580199544,0.3705480596384945,0.04694238057513165,0.1557574056228232,-0.3357627035376309,0.07791669213838047,0.1069794032772585,-0.04945011878866837,-0.7940617256698403,0.0,0.0,-0.1241811540789122,-0.31301631755057535,-0.40631437282902394,0.0,0.0,-0.38019550437696925,-0.4311932518528779,-0.03212308822866291,-2.0718115339087992
130,0.5843341143570272,-0.018035254315320482,0.0016194155051701908,0.34006879747379837,0.3464477567171704,0.17808646604077744,-0.4474257742157094,0.25667541429145097,0.1051600412069537,0.0,-0.8291665274288132,0.0,0.0,0.0,-0.25487161956259996,-0.5742949078662026,0.0,0.0,-0.27928984623729625,-0.5498766811915166,0.0,-2.4218672538762487
131,0.0530286057928727,0.030244113649996116,-0.0001994188735789694,0.3934124634800721,-0.08395840946866821,-0.09777930077670073,-0.26150321294526313,0.014959848448814258,0.10747444853328696,-0.08107634817411279,-0.7663388321061642,0.0,0.0,-0.18728394237893672,-0.3906825397493954,-0.269448698151937,0.0,0.0,-0.40446591862360953,-0.3962415695741339,-0.04670769208252472,-1.7048217990312038
33,-0.06004214025918064,0.047950504264948964,-0.2885161485459668,0.24092154258723975,0.2351583647664348,-0.055477017900868245,0.8730148232810446,0.32669343886727276,0.12038326645173328,-0.16574138164256158,-0.7834573240509968,0.0,0.0,0.0,-0.43702569643036787,-0.5121730092631858,0.0,0.0,0.0,-0.9491987056935578,0.0,-0.8227910101303996
66,-0.5248082246532861,-0.03417746295595923,0.2552334064640237,0.12192525112233811,-0.21680404848012005,0.21286399796005087,0.9730802784608191,-0.3209753870399925,0.08923800562159048,-0.2042316826196065,-0.49939268255451524,0.0,0.0,0.0,-0.42334314274049245,-0.2802812224336271,0.0,0.0,0.0,-0.7036243651741219,0.0,-1.6995254115295646
133,-0.32246970929214525,0.04100297097623527,-0.13794310474386856,0.1916929619275654,-0.04371420354359105,-0.1949062807047751,-0.2755339696719418,-0.0041031154766841835,0.06475971049143776,0.0,-0.5106177560334559,0.0,0.0,0.0,-0.1320553610443026,-0.37856239498915834,0.0,0.0,0.0,-0.5106177560334559,0.0,-1.4094241191758379
67,0.2097856764493195,4.03285607975309,1.8723458752904456,-0.0807041084327752,7.640160146389153,-3.5033427771166874,0.11600177253101053,0.43095321438640943,-0.027264301438208245,0.0,0.21497372848876695,0.0,0.0,0.0,-2.1874104385836244,2.4023841670723924,0.0,0.0,0.0,0.21497372848876695,0.0,0.11359568216682492
17,-0.2119614326963542,-6.3529362639403075,1.4194305014905078,0.07205403864583644,1.1516653903447087,4.227602960279237,-0.10356841012496107,-0.9765970347261194,0.024342044880116306,0.0,-0.19193230234705888,0.0,0.0,1.658401975364189,0.20880873305788547,-2.059143010769135,0.0,0.0,-0.13788532162402273,-0.05404698072303608,0.0,-0.1278715742922707
9,-0.006248088054762615,-0.06730511713914579,0.06921104194759928,0.11690385582288274,0.5546212728462558,0.14228069884439767,-0.16888047631825856,-0.001506701653050357,0.08937615789296596,-0.039724004941588016,-0.7143595001366368,0.0,0.0,-0.03164763694938431,-0.26450093127237917,-0.45793493685645437,0.0,0.0,-0.2656032306582591,-0.42825156250874363,-0.06022871191122449,-1.3846153250492477
18,0.6662062906428448,-0.33039775490563567,0.6696384146143551,0.008549959176553896,1.0804186689583666,0.18526889360510562,0.06256040122487716,-0.053582730811381166,0.11341090712003156,-0.16106903234858036,-0.7331539724161777,0.0,0.0,-0.05324472064577008,0.043499519302965174,-0.8844778034219563,0.0,0.0,-0.1280933315372085,-0.4497089465514417,-0.3164207266761042,-0.7100238747085981
36,0.4379898227401593,-0.19517965696166217,0.49409890216243657,-0.04462864479373903,0.8449058956770861,0.08736225896952526,0.04861039835052241,-0.08801497303828745,0.12436284083309589,-0.20321140153173575,-0.7773654762561446,0.0,0.0,-0.06908994758094127,-0.10081346140907718,-0.8106734687978622,0.0,0.0,-0.19273117642553064,-0.5056444942158342,-0.28220120714650965,-2.3790662922372636
72,-0.31381207790527516,-1.2290311362687592,0.12267350146529037,0.29795485306414016,2.7949564733316015,0.5636426256898492,-0.9402005803020248,0.4096558471966931,0.26252649665447625,-0.23589744602202112,-1.8340730588454612,0.0,0.0,-0.02701374468515241,-1.097329469268432,-0.9456272909138974,0.0,0.0,-0.531006840831877,-1.5389636640355775,0.0,-1.8119385913274093
73,0.0026404515180891144,0.046887944678736165,0.0697186486031471,0.2899168940554175,-0.01909793491702049,-0.19671584501011036,0.19709793500675715,-0.013367964800373097,0.09794274102092398,0.0,-0.7722595153738836,0.0,0.0,0.0,-0.3088685759517589,-0.46339093942211657,0.0,0.0,0.1317454177086564,-0.4229353917177835,-0.48106954136475427,-1.510740250110011
146,-0.2913009084236952,-0.04667354029018123,-0.16708581674923906,0.2806988908590254,0.030995265555432864,-0.024370767159724836,0.06466692761109223,-0.01631532530868725,0.09482861929050267,0.0,-0.7477052695636954,0.0,0.0,0.0,-0.20493163680177529,-0.5427736327619168,0.0,0.0,0.0,-0.4919096667221813,-0.25579560284151115,-1.5442492889376684
147,0.9884873127027576,-0.4081713393060032,0.26178784182536413,0.324565852859672,-0.8370450063667969,0.4384995461841498,-0.46652165504217596,-0.4549654758988401,0.10964821272124367,0.0,-0.8645548892656503,0.0,0.0,0.0,-2.0644959643658796,1.1999410751002393,0.0,0.0,-0.02219027181786764,0.07756318632862803,-0.9199278037764035,-1.2788570393580176
37,3.486386046942907,0.19351781529855192,4.0321127559732455,-0.05719373872711689,-4.428117431905196,-0.35202702082467446,0.08220864090887606,1.820909207367392,-0.01932178377675941,0.0,0.15234851730779284,0.0,0.0,0.0,-2.627947087012706,2.7802956043204845,0.0,0.0,0.0,0.15234851730779284,0.0,0.12186540581774596
19,-0.3514208120219574,0.016550696346816902,-0.13650807254278752,0.05411286313337823,-0.08158032598799242,0.016848451650576825,-0.023006937980675175,0.025887256374034783,-0.044921759643206445,0.00666281280864057,-0.4026795217008723,0.0,0.0,0.0,-0.12110909722770354,-0.27490761166453265,0.0,0.0,0.0,-0.39601670889223545,0.0,-0.8198597982797222
38,-0.26300291481054916,-0.0009092969026567754,-0.08310697919006801,0.045315577782234495,-0.16855769341330443,0.02620211473214628,-0.030420348588925162,-0.1818088225051064,0.05221794298669336,0.0,-0.41172835193686896,0.0,0.0,0.0,-0.19065024936740135,-0.22107810256946572,0.0,0.0,0.0,-0.41172835193686896,0.0,-1.187942882941997
76,0.12203966938170845,0.26568379668417313,0.19385594829755287,0.19709266438030248,-0.20731256565800904,0.39257867179843275,-0.2832953472253433,-0.15285224910527712,0.06658389414462372,0.0,-0.5250010903089551,0.0,0.0,0.0,-0.1388184087663627,-0.38618268154259117,0.0,0.0,0.0,-0.5250010903089551,0.0,-1.2143867144657108
152,0.3441967382693361,-0.16281964833228935,-0.35943612821041776,0.16242960418698577,-0.27085994770924043,-0.3640527370952387,-0.23347165792551858,-0.14068682123489426,0.05487365856636289,0.0,-0.43266815416364296,0.0,0.0,0.0,0.017177112700531454,-0.44984526686417325,0.0,0.0,0.0,-0.43266815416364296,0.0,-2.063687695189703
153,-1.2040548101556303,-0.6989262942975203,0.8881112669630429,0.11032766779269704,0.4029440607464636,-0.6769191393807777,-0.15858182776191668,1.8850823571432658,0.037272040421340115,0.0,-0.29388280920819143,0.0,0.0,0.0,-0.46184745068418404,0.167964641475993,0.0,0.0,0.0,-0.29388280920819143,0.0,-0.5233158634679445
77,-0.026481992799235143,-0.19393456845892548,0.051728045463116185,-0.08977962707439625,-0.10267351811877883,-0.2631550341628625,0.19392781688813435,1.5063689127964792,0.03361155432591585,0.0,-0.2650205863561491,0.0,0.0,0.0,-0.2007417446961213,-0.06427884166003366,0.0,0.0,0.0,-0.2650205863561491,0.0,-1.0622838455915078
154,1.2981381571879356,0.1194154979166148,-0.08185459640788154,-0.12546806345790612,-0.45686463687244006,0.4049228232355739,-0.3320878853925343,0.1659313027646826,0.0780517746735189,0.0,-0.6154231038986799,0.0,0.0,0.0,-0.4413266362372901,-0.1740964676613899,0.0,0.0,0.0,-0.6154231038986799,0.0,-1.6703742751142219
155,-0.5890481023616252,0.25023829137644804,0.02562047340767686,0.06796512307114524,0.19487682158218375,0.02880069181546865,0.33842911224526834,0.8518778089059704,0.0229606848855797,0.0,-0.18104054672721445,0.0,0.0,0.0,0.26004797648136885,-0.4410885232085815,0.0,0.0,0.0,-0.18104054672721445,0.0,-0.7463830548991254
39,0.3491598346363814,2.6743987401102087,3.1208459125752115,1.923889433422313,2.4819479800812023,5.7565672109030555,-1.4666351991911284,3.273779631823066,-4.433412894929922,0.5984464463212841,-2.485327086806843,0.0,0.0,0.0,-1.3378763308973758,-0.5490043095881773,0.0,0.0,0.0,-1.886880640485544,0.0,0.4157364493249718
5,0.15869802637189823,0.08289894273470352,-0.03043251892271372,0.06081019263936493,0.106470985904328,-0.12474859959391434,0.22369755528313115,-0.004811259658259826,-0.09586636128427219,0.09586729773892061,-0.4941503038089585,0.19156069914985877,0.0,-0.13315396439607613,-0.22631493846719647,-0.23037480235662247,0.19156069914985877,0.0,-0.11447459036150738,-0.47536911485838745,0.0,-0.8352887988485169
10,0.07270797084415001,-0.03146491485823973,0.02443964378587532,0.05965993638934829,0.011125254141168377,0.18797155051343142,0.06775244026382683,0.03225896031681471,-0.16653669274512414,-0.1045313803857413,-0.6079398840855491,0.08765427960183328,0.0,-0.20097138614013088,-0.2784079634854317,-0.32074619444756697,0.08765427960183328,0.0,-0.33057749955342103,-0.4695480445197068,0.0,-0.9277858700049486
20,-0.05164395459463821,-0.05326496025210481,-0.07476377563713656,0.17600033539879056,0.05146570973064953,0.015335858587273737,0.060817723420899604,0.03147983110426612,-0.5258047678120613,-0.30626243091286426,-0.4973313823637358,-0.08092637608527732,0.0,-0.07890712127505561,-0.1199122100375879,-0.5238481058786811,-0.08092637608527732,0.0,-0.44271547561498703,-0.27995196157633806,0.0,-1.3823269892805277
40,1.1314652562164147,1.0327231768143623,-1.4384400048160848,0.10210835195584171,0.9700982235570658,0.04413933651140848,-0.6042923506988395,-0.08167288492616517,-1.3023427523446214,0.04288132013112563,-0.39300809474938475,-0.21419105060672652,0.0,0.0,0.7435271850741942,-0.8794629090857315,-0.21419105060672652,0.0,1.1081351826935382,-1.244070906705088,0.0,-0.8221386555116154
80,0.413233191898382,-0.09042599178800635,-0.7431795032723553,0.15440065477893797,0.6837095867036416,0.06547048906825705,0.7986926015441133,0.17675445757533112,-0.8196005506876928,-0.755670356738872,-0.4559894123634516,0.12612081256280483,0.0,0.0,-0.13969691104818413,-1.1980836706169484,0.12612081256280483,0.0,-0.5449756985254712,-0.7928048831396592,0.0,-1.63774086060375
160,-0.3767733901281849,0.018889971906399034,-0.37033016946789343,0.2518175454707256,0.3185328563892774,0.033516215752799436,0.7760503750996435,0.21809540145138467,-0.8222904248727494,-0.7727819396587718,-0.5221101327904933,0.11771258075560345,0.0,0.0,-0.12894633744536632,-1.2836583157594994,0.11771258075560345,0.0,-0.5889154030725002,-0.8236892501323655,0.0,-2.6346263778067387
81,0.8823692862098701,1.2919755182736434,-0.24393346899564197,-0.9941673707769108,0.25165104803071076,-0.6771156543856868,-0.2964703846122202,-0.06557053115926191,-0.061722808954474406,0.2788316846503839,0.41946284309751986,0.0,0.0,0.0,0.08633074347119674,0.6119637842767046,0.0,0.0,-1.1862097000482585,1.8845042277961566,0.0,2.594546187868974
162,-2.5145628858682114,-0.46395979523887954,-0.5256436233060126,0.15340457484371514,-0.2740262640400605,1.286532887751452,-0.22049933939930677,0.375646556970113,0.051824729270420165,0.0,-0.408627938054203,0.0,0.0,0.0,0.0,-0.408627938054203,0.0,0.0,-0.408627938054203,0.0,0.0,0.005374854142913943
41,-0.13791677690305948,-0.09622534115350416,0.010977020419663712,0.1548231432458202,0.05043873060380746,0.013429943516243844,0.2229143502711417,0.021092300776162753,0.09226578179063145,-0.2548952662065169,-0.47260252677441233,0.0,0.0,-0.17802447733806673,-0.18014282298323692,-0.36933049265962586,0.0,0.0,-0.37169269744370403,-0.355805095537226,0.0,-0.968930475070646
82,0.08893591503068438,0.02778372276270207,0.04566503260058929,0.05605298289488751,-0.07700846214064334,0.07263645640928784,0.03111089112598267,0.04624167842159984,0.09858757267679494,-0.18660083297150645,-0.5907430549333983,0.0,0.0,0.01874613459692333,-0.5991623954165303,-0.19692762708529396,0.0,0.0,-0.35160607547083794,-0.42573781243406356,0.0,-1.0915374584650626
164,-0.05782752397095361,-0.041420967394677446,-0.11328552138911761,0.10098659400008024,0.12841381219678874,-0.1765340881793912,0.18903643051371172,-0.20137901790609014,0.0925380150615795,-0.24134470468671837,-0.4882995948315939,0.0,0.0,0.0,-0.3853606879124886,-0.3442836116058261,0.0,0.0,-0.2239262586565561,-0.5057180408617565,0.0,-0.8729018450356066
165,-0.032629663876666694,0.20347989985752954,0.3670348406169121,0.524915258606112,-0.29127052494877037,0.13600172699324312,0.6888388721466209,-0.015258189716457565,0.11909076500389099,-0.4951209661099428,-0.44388661636889526,0.0,0.0,-0.4356661782241738,-0.042386017106643616,-0.46095538714801876,0.0,0.0,-0.8272077525963223,-0.11179982988251172,0.0,-0.5534428224873174
83,-0.47425359460396405,1.0311023984457588,-0.16430508800234359,-0.12391368326589705,-0.7768900190724716,-1.1695835968806487,0.17810997703622072,-0.3102534344816692,-0.041861809497520455,0.0,0.33007224811405156,0.0,0.0,-1.8854773438992771,1.0536128777668532,1.1619367142464665,0.0,0.0,0.1714266944193173,0.15864555369473515,0.0,-0.3091907537924077
166,1.7465031287058104,1.1922780092508054,-0.515348279305033,0.012560507705134144,0.26523205606531486,-0.24665056953753986,-0.018054113798910094,0.012419820763998788,0.004243321374090609,0.0,-0.033457765974004405,0.0,0.0,0.033879404059109774,-0.04864933509815318,-0.018687834934962157,0.0,0.0,1.2150168827040055,-1.2484746486780036,0.0,-0.8298017912948843
167,-6.485471490808824,0.9298429956446331,1.1365477336402365,-0.06421413391081605,-1.4095807126367603,-0.061161153969707914,0.09229955574570618,-0.012864920114918776,-0.021693486707635594,0.0,0.1710489348876709,0.0,0.0,0.0,-0.07419901409126511,0.24524794897893507,0.0,0.0,-0.05673929705062123,0.22778823193829223,0.0,0.09898058677272437
21,0.08481894343035082,0.17291843425207654,0.6326099784749347,-0.09507862918785395,-0.006303461763814431,0.09627467527506689,0.0007008737650792265,-0.06788883036752089,2.13412390568337,-0.29369884719103706,-0.11286952738055281,0.5772654787695349,0.0,-0.13543569812635828,-0.7470359979989973,-0.10136215721575974,0.5772654787695349,0.0,-0.5756129729199816,-0.40822088042114396,0.0,-0.2817024097276093
42,0.006573634911693165,0.4770775078360971,0.39566351940095507,0.7765388368623104,-0.33628712351415024,0.8232888703727339,-0.07130297251535433,0.016707377677702317,0.21271858485253492,-1.2644759572893174,-0.623672901939037,0.0,0.0,-0.26639320071156725,-1.1037926099314663,-0.5179630485853135,0.0,0.0,-1.2970792815042846,-0.5910695777240744,0.0,-0.880910708320209
84,0.08402787755500225,0.26949072366568694,-0.12807426928541654,0.11875471029126121,1.436428280347947,0.11591545598232045,-0.1300058017190841,0.10830721484280818,0.27813591034590557,-1.5413993352987938,-0.840107923070278,0.0,0.0,-0.1944889988648618,-1.1221427274200095,-1.0648755320842027,0.0,0.0,-0.8278392636416867,-1.5536679947273768,0.0,-2.022234386630452
168,0.4545256976732453,1.6826296564767502,1.2010722574417183,0.2989415094348089,1.5054674671535708,-1.1671080067159747,-0.08268279940966927,-1.7000408002850926,0.17985933881703778,-1.0128666950586405,-0.5469548574440477,0.0,0.0,-0.16522387674861252,0.03189863929268865,-1.42649631504675,0.0,0.0,0.23868559828854818,-1.7985071507912356,0.0,-1.5785395849085702
169,2.1466276583527963,-4.621682785816015,2.4827104535017077,-0.1469046590516772,0.25390536096850197,-1.7772736313951343,0.21115654672343526,-0.17857879100357202,-0.04962886010194199,0.0,0.39131393558503397,0.0,0.0,0.0,1.643283150023377,-1.2519692144383407,0.0,0.0,-2.1922891612864963,2.5836030968715162,0.0,-1.1011386528222058
85,1.9385945081615534,-5.267581140417018,0.48398147596059127,0.20208493807616718,-0.2170332509691425,-1.93209937270756,0.736167988875363,0.33801737318318464,-0.2563456194565588,0.4730765922505321,1.5481588947922944,0.0,0.0,-3.501532052323636,2.7467703012973317,2.775997238069125,0.0,0.0,2.273693709046787,-0.2524582220039738,0.0,-0.031210679874878577
43,-0.375284750970213,-0.7224923459288153,-0.8212097628099434,-0.24682444784729174,0.9233609362325662,-0.3561979325915339,-0.16497670665151154,-0.010870100448707284,1.0104405768074949,1.9331218146691898,0.4457209797799809,0.2787240375711741,0.0,0.0,2.279424173198769,-0.17930541632076516,0.2787240375711741,0.0,0.9295601824409244,1.1705585744370695,0.0,0.446044769666994
86,1.3562622287291854,3.631972790041389,-0.9226688775973536,1.1644678053790203,3.654968656044833,1.2333222203188774,-0.8599167771946319,-0.23419676411384577,-1.2468999023709566,0.17922200214804082,-1.523923910139382,-0.033960610126459505,0.0,0.0,0.0,-1.3107412978648838,-0.033960610126459505,0.0,0.8646821644939158,-2.175423462358791,0.0,0.034939823669740355
172,-2.7859475471320048,-1.694989727232737,-1.9781291846204303,1.151223708141517,1.1744054439179443,2.0561447116890985,-0.7876999653783656,-1.1618967487670455,-2.079866108875121,0.21792581465397493,-1.375047006609175,-0.031498020765637604,0.0,0.0,0.0,-1.1256231711895606,-0.031498020765637604,0.0,-0.5422587647187302,-0.5833644064708332,0.0,-0.7345397090070243
87,3.096902678232824,-1.1301209360804496,-0.3937164234964857,0.3852978435791632,-0.4646798614339586,0.29671835978753136,0.1590272629979367,0.847054202961648,0.9748905841307147,0.9278736844838251,0.6553969253915063,0.09017797416597231,0.0,0.0,0.6670008668113522,0.8260917688980122,0.09017797416597231,0.0,0.1255758049269934,1.367516830782377,0.0,0.38687497129692605
175,1.4274625630471542,0.1731561593017207,-0.33860079853586905,0.2319476794497257,-0.3215539302909063,0.5972385465506973,0.18898594655870896,0.5618987137838786,0.9067435251620626,0.8510926538629852,0.6810693784723476,0.09467574203584429,0.0,0.0,0.6388949771363972,0.7985913131630966,0.09467574203584429,0.0,0.102088162935475,1.335398127364014,0.0,1.6567771412307764
11,-0.05685978188370957,0.023288242369906845,0.019666923918273384,0.0058877133546711745,-0.010759049512859338,-0.11012726004304522,0.016327569604456794,-0.06166105269102803,-0.05941175534891159,-0.3077136692044086,-0.10520551994678087,-0.047903118693699204,0.0,-0.12779193721517523,-0.13025666132127553,-0.10696747192103966,-0.047903118693699204,0.0,-0.38398732818434184,0.018971257726846807,0.0,-0.10723114117085239
22,0.05303045079016952,-0.021790813586629015,0.010763559615233936,0.026738242038188413,-0.0140069999380615,-0.023320381196082787,-0.10992263471736964,-0.029880184518442852,-0.023690577528853344,-0.15841410723465388,-0.25175160608662883,-0.02694087658841062,0.0,-0.12695223000325773,-0.11783267446184631,-0.13843993226776824,-0.02694087658841062,0.0,-0.18050746698299075,-0.2027173697498828,0.0,-0.6489686187825471
44,-0.5975094201192636,0.011925880140453328,0.002274050472248779,-0.13093097008993743,-0.3505493508812439,0.6182636007595371,-0.4233782825613939,0.09257333700801906,-0.544695605239335,-0.5570951389624047,-0.22750673372934785,0.0,0.0,-0.6048303490124425,0.02091444570087815,-0.2006859693801866,0.0,0.0,-0.5356328779743321,-0.24896899471742195,0.0,-0.7649540746901629
88,0.31276205037133564,0.0701024838537679,0.0591541935405006,-0.3166187258521079,0.784317561635112,-0.1042142910505992,-0.5316070045058836,0.025578118611415356,-0.34799447842660447,-0.4089894902009991,-0.576181144315167,0.0,0.0,0.0,-0.20840795323632047,-0.7767626812798406,0.0,0.0,-0.3612338526561607,-0.6239367818599989,0.0,-0.787421520123889
176,0.32717490226960116,0.05857654655865701,0.01813926459285546,-0.1809200875014692,0.869559876435049,-0.30842297623856585,-0.7489092731751045,-0.015746022436236882,-0.3168203154117895,-0.42619789603928665,-0.9616758858999176,0.0,0.0,0.0,-1.3588186440886547,-0.029055137850554476,0.0,0.0,-0.5649410465623625,-0.8229327353768464,0.0,-1.417200015357523
177,3.4023776857263397,-0.25421449033516547,-1.268940173490399,0.03460428991501986,-0.5281863108580539,6.594600240330162,-0.049739214586119865,4.624591880536829,0.011690381191487156,0.0,-0.0921763881566774,0.0,0.0,0.0,-0.0921763881566774,0.0,0.0,0.0,-1.451869675243285,1.3596932870866167,0.0,-0.015176384457147973
89,-0.22452645448772404,0.1460446023348303,-0.30426175091025276,0.010857877091155644,-0.23441378864066492,-0.9247850624496584,-0.015606801350727846,-0.077841410280941,0.0036681209883989417,0.0,-0.028922422502230295,0.0,0.0,-1.1993128939334226,-0.11548972089739232,1.2858801923285752,0.0,0.0,-0.028922422502230295,0.0,0.0,-0.23452640918562484
178,2.408814787548972,-0.7073834622611614,0.09567523310259116,-0.07927638773588414,2.4132961260084067,-2.146541616018943,0.11394960771889928,-0.6821127526127365,-0.026781973980467614,0.0,0.21117067003968315,0.0,0.0,-0.3352055388974918,-0.04130425925909516,0.5876804681962687,0.0,0.0,0.21117067003968315,0.0,0.0,-0.0300849602265596
179,-3.2956339100498813,0.4314085481102221,0.5711285065323672,0.19527313156978063,-0.8009259798896863,2.0695197192747106,-0.2806800029101929,0.31169454433730087,0.06596920064281704,0.0,-0.5201543512769357,0.0,0.0,0.0,0.16878104072127864,-0.6889353919982132,0.0,0.0,-0.5201543512769357,0.0,0.0,0.5902172394576307
45,0.030288353850132056,0.08995608662095164,-0.07513845965765259,0.014550133121342368,0.09562075161295044,-0.11399050125543024,-0.005099653798287414,-0.15039180090459403,0.10343538031514438,-0.065670734741522,-0.264923556661637,-0.022551185220439047,0.0,0.0,-0.1892003845707282,-0.118842721611993,-0.022551185220439047,0.0,-0.11804938155613284,-0.18999372462658992,0.0,-0.3950400445721085
90,0.012970065040922922,0.06607905873064619,0.08373752212880713,0.2573684517241595,-0.024338170034242115,-0.026890139799886918,-0.057278300539572384,-0.13049042784675743,0.14678511305744132,-0.2184758611757967,-0.19107502367467846,-0.06288106257162858,0.0,0.0,-0.17082204024042602,-0.17584778203842027,-0.06288106257162858,0.0,-0.20254951782692707,-0.14412030445192156,0.0,-0.8317531904238137
180,2.2680276031580076,1.2397054252608946,1.3169742288725323,0.8112172003985006,2.2352752806806864,-0.5831179670301282,-0.9011135641576348,-1.3177656508613247,0.21179186582415518,0.0,-1.6699377815712564,-0.021171961207098914,0.0,0.0,1.4023932907385557,-3.051159111102704,-0.021171961207098914,0.0,0.34740835094847494,-1.9961741713126289,0.0,-1.3674169421277171
181,-0.06759490852277214,-0.06379366479636236,-0.018006442732105974,-0.011818562495858068,-0.07510175559934652,0.044250067890968636,-0.06245203469929076,0.5782423954499543,0.12469111181967577,-0.036605913366376544,-0.12996537427675173,0.0,0.0,0.0,-0.11395077395088049,-0.05262051369224687,0.0,0.0,-0.19557936801065573,0.029008080367527236,0.0,-0.47086992917525544
91,-0.23284928947936656,-1.1343494906732723,0.40648138385737054,-0.5308613116261315,-0.24430595369822503,0.8047146524970573,1.1665704777388954,-0.013023517109845475,-0.15846831607473524,-0.21692597062946375,0.574195829340424,-0.2758152468320884,0.0,0.0,0.7558368644691491,-0.12275175892609905,-0.2758152468320884,0.0,0.41914069445263896,0.21394441109041154,0.0,-0.1068720215510282
182,-0.4101864216640441,-1.2214838356586706,0.307925483676966,-1.0816380044014242,1.3248488500336102,0.4559564630249542,1.7414307465619303,-0.3231298559035389,3.95224807287686,0.13239979928296217,0.0033661295906330675,-0.5713570076154888,0.0,0.0,1.392375198366124,-0.6852522618770464,-0.5713570076154888,0.0,0.6372022965111189,0.06992063997796168,0.0,-0.7819141621632616
183,0.18935658604756897,-0.42538732393685497,0.05144457557550432,-0.1948479661424058,0.1231186948877402,0.3302589495551408,-0.08831891852028295,0.19620524580091872,-1.2711742864191913,0.292413562149966,0.13103548928715283,0.05866344253517371,0.0,0.0,0.28445430091463303,0.08033130798731392,0.05866344253517371,0.0,0.43287192368295224,-0.06808631478100534,0.0,0.5048594824388284
23,2.104561917581769,3.2295599521770377,0.5389657174715031,0.30417704771679194,-0.5433508099578203,0.3106934757076382,-0.4372153708604466,-2.6877707260544508,0.10276025447258141,0.0,-0.810244674505675,0.0,0.0,0.0,0.0,-0.810244674505675,0.0,0.0,0.0,-0.810244674505675,0.0,1.6811046494052677
46,2.7866533117493764,-8.213180911366555,-4.885476893628082,-0.4237970259817006,0.7570277213659814,-1.000689007102077,0.6091536993832032,-1.3994498427834494,-0.14317151988124513,0.0,1.1288796638355323,0.0,0.0,0.0,0.0,1.1288796638355323,0.0,0.0,0.0,1.1288796638355323,0.0,-0.43063242355182374
3,0.0476376958597857,-0.2025275128328739,-0.23558593790939186,0.24809241883279484,-0.16734913316673186,-0.10274763088413288,-0.23211513759121266,-0.006184756604763395,0.008435301295700463,-0.20950140116125415,-0.041649932120723605,0.0,0.04211103529892703,-0.12142267706213086,-0.06864572752017349,-0.10319396399859973,0.0,0.0,0.3556204897939658,-0.6067718230759456,0.0,0.35373534121279915
6,-0.010108787422660312,-0.0586323877309955,0.09658482158326356,0.05678440056811799,0.03581338515478546,0.11161389619735784,0.02382710392303957,-0.012716970324131924,-0.04495891713209059,0.18062999144095743,0.15388051551240753,0.0,0.0,1.1077481098366941,-0.1593741988506358,-0.6138634040326928,0.0,0.0,0.23541132213944713,0.09909918481391738,0.0,-0.2606526414890292
12,0.24452318242342203,-0.32907185789875226,0.11766813563480354,0.11714286495410545,0.1294748357087835,-0.5135170068737125,-0.3056948053217866,0.14744598573389603,-0.03487515164532174,-0.3621162687386594,-0.8697273301544343,0.0,0.0,0.0,-0.7373985116801784,-0.4944450872129152,0.0,0.0,-0.4760447557634142,-0.7557988431296784,0.0,-0.5886628793968152
24,-0.15060374257804468,0.14290125390284306,0.4736214184951497,-0.22367317856343108,-0.7572146170220445,0.2812909767973098,-0.23671397521342552,-0.45522876761918685,0.134077189617197,-1.0120305934656673,0.04609229840078336,0.0,0.0,0.0,-0.453913255133478,-0.5120250399313987,0.0,0.0,-0.1472537026901932,-0.8186845923746877,0.0,-0.8663650891281159
48,-0.4161875743939884,0.3231244192393728,0.6502195636583543,-1.538366443453571,-1.2610237796149693,0.2888732547894354,0.21629883149202767,-0.6341466804445486,0.41859257845502745,-0.22314785651087068,-0.3745469774509894,0.0,0.0,0.0,-0.7403076008986472,0.14261276693678937,0.0,0.0,0.13809801843322997,-0.7357928523950881,0.0,-1.2969573490074517
96,-0.058826013303625614,-0.3165364645075839,-0.46617303876849725,-0.02193768755923687,-1.1571770104270904,-0.7557015794229711,0.9086795334505526,-0.4106836044068673,0.12429715492040189,-0.7632212914368007,-0.9680700092912997,0.0,0.0,0.0,-0.5067122952525517,-1.2245790054755532,0.0,0.0,-0.07938806851259797,-1.6519032322155074,0.0,-1.8872681269110592
192,-1.381189488740701,-0.9740823284710383,-0.339560314004623,-0.011466399941086648,-1.3663005839064146,0.6232476711193095,0.6112656031428432,-0.36744485511612635,0.17156490970794366,-0.5324713432218485,-0.7174293788071627,0.0,0.0,0.0,-0.40442550861243814,-0.8454752134165816,0.0,0.0,-0.6473613592159547,-0.602539362813067,0.0,-2.598196727366763
193,5.747838982389061,1.3107437292594672,3.0811420896729533,0.8692778839974775,-1.5527892255309674,1.4929042390326794,-1.2494751174868632,0.4919547143184491,0.2936684974671009,0.0,-2.3155191407811304,0.0,0.0,0.0,0.0,-2.3155191407811304,0.0,0.0,-2.3155191407811304,0.0,0.0,0.09061357980575102
97,0.1694522902970184,0.0885979675810822,-0.6009348713920346,-0.860185448479203,0.2551500866442641,0.9190529629120647,-0.9554340418892701,0.0009688482156939257,-0.024359387397570514,0.39466576677992166,-0.3992259153518455,0.0,0.0,0.0,0.0,-0.004560148571924607,0.0,0.0,-0.3992259153518455,0.39466576677992166,0.0,-0.040172063989471485
194,-0.2915745767032433,-0.5916652028754418,0.3079234791677117,-0.004721016675847034,-0.1325029086641713,0.3525460579305412,-0.03440981159563514,0.09112324660846519,0.22850696886199756,-0.0815968788877502,-0.34729955314326344,0.0,0.0,0.0,0.0,-0.4288964320310132,0.0,0.0,-0.34729955314326344,-0.0815968788877502,0.0,-1.1945225018334773
49,1.3164044561313606,-1.313697648904383,0.37541568544859116,0.4511260672346102,-0.43686074041118766,-0.36846117119856475,-1.2082703126166396,0.1568558775185806,-0.14148735153389427,-0.2698588993713171,-0.4684261015996967,0.0,0.0,0.0,0.0,-0.7382850009710143,0.0,0.0,0.20189921480591,-0.9401842157769206,0.0,0.2755273053167686
98,-0.2908302489373959,-0.9442002976177257,-0.927675641590175,-0.0830439930810803,-2.6588906271871395,0.5039301460564806,-0.9565906887270972,0.3248103932872414,0.1390109955460701,-0.8095660757738501,-0.7192426964384575,0.0,0.0,0.0,0.0,-1.5288087722123125,0.0,0.0,-0.9682935802107857,-0.5605151920015244,0.0,-0.8057492132050004
197,0.7548069324473513,1.2766519296725753,-0.1741643390518948,-1.2921173850494252,-0.48001615780362283,-0.208269593092971,-0.26051825696625647,-0.0295194245997395,-0.153161753130254,0.13894122913373705,0.0,0.0,0.0,0.0,0.0,0.13894122913373705,0.0,0.0,0.39741688481792226,-0.25847565568418374,0.0,0.034427188873974876
99,0.6966025038652087,1.1336070635998807,-1.5935877225038753,0.8218606463279782,1.4668419153844403,-0.6280203316948333,-0.0972285444773029,-0.2101953022438616,-0.12037002616090413,0.2613589647201892,0.7279825975864488,0.0,0.0,0.0,0.0,0.9893415623066336,0.0,0.0,1.2483053042905576,-0.25896374198390715,0.0,0.6319949105806858
199,-0.8174109492946431,0.7002488896197736,0.44845952816836476,-1.5518236810712924,-0.6301466027681322,-0.4121580746959801,0.19243571242407234,-0.18305881909354085,0.11004108818941763,0.11285365061715588,0.7487626469055103,0.0,0.0,0.0,0.0,0.861616297522671,0.0,0.0,1.1805013957129917,-0.3188850981903236,0.0,0.942407474693149
25,0.20344952563446564,0.13129469406759062,0.038439640791840715,-0.14711007619486946,-0.0008601087639883158,0.0008581539829253186,-0.4923909165013844,0.21632310621651513,-0.15269025874548794,0.04932324323109299,-0.7411080283159196,0.0,0.0,0.0,0.0,-0.6917847850848299,0.0,0.0,-0.9232941015366232,0.2315093164517971,0.0,-0.5889639193082137
50,1.0468457315005955,-6.832986748006572,1.5423498016027328,0.09858912975583504,-0.2665958011054588,0.595914432042304,0.7454116889132045,0.08446288718063935,-0.7040769318383681,-0.3975476324550615,0.0,0.0,0.0,0.0,0.0,-0.3975476324550615,0.0,0.0,0.5543981526896316,-0.9519457851446936,0.0,-0.40752047213272535
51,0.2194228701920115,0.22436559004276965,0.0398340235128355,-0.0033720431701421126,0.006073536686908991,-0.043455329567799135,-0.40141675386655734,0.13609116460001344,0.4994554388447846,0.03816755268943689,-0.6112789163128708,0.0,0.0,0.0,0.0,-0.5731113636234321,0.0,0.0,-0.4909122017948215,-0.08219916182860944,0.0,-0.27050832263129293
102,-0.0377604778558975,-3.3481678377263058,3.292003814469246,-1.2598709014104803,-1.046291397527298,2.5151197132377097,2.4285902840711597,0.3759185623625877,0.2423074424156579,-1.4327384559459715,-0.47780872806047137,0.0,0.0,0.0,0.0,-1.9105471840064416,0.0,0.0,-0.03543798695745287,-1.8751091970489828,0.0,-1.1953073012470914
205,3.1417723750181743,4.234247100526259,-1.2075291812063214,-7.272757972535302,4.058774340711152,1.4555596934859438,1.8207164503750788,0.20630608618463978,0.12315279554154794,-0.9710359053718585,0.0,0.0,0.0,0.0,0.0,-0.9710359053718585,0.0,0.0,-0.9710359053718585,0.0,0.0,0.1686863419043032
103,0.18191744114222302,-0.21451036696751535,0.24520658040481477,-0.21394031936430294,0.14837298449366448,-0.4330425809230501,-0.37193227639938986,0.1409411549623724,0.37045775844486006,0.04225738810930956,-0.5424271809679948,0.0,0.0,0.0,0.0,-0.5001697928586802,0.0,0.0,-0.4228482920681136,-0.07732150079056795,0.0,0.16845579531966265
206,-0.2812123970444375,-0.5783697264399839,0.22154300053317313,-0.7989168761177557,1.013877981769268,-1.027370584606463,1.0122029711184728,-0.15522115500802844,0.36720228621271556,-0.2696491131570482,0.9388355702949166,0.0,0.0,0.0,0.0,0.6691864571378695,0.0,0.0,-0.2601942590930589,0.92938071623093,0.0,-0.07149444860982457
207,0.28204310649853104,-0.28899105067196107,0.008559943020651783,-0.07491517543773338,-0.05543631402592686,-0.5174208537339586,-0.6388666918610154,0.3946991222020895,0.12947702574064565,0.10745570119895195,-0.8105582556877344,0.0,0.0,0.0,0.0,-0.7031025544887898,0.0,0.0,-0.3226496830585992,-0.38045287143018935,0.0,1.1590673838676242
13,-0.16649181188560627,0.14976311834839895,-0.19972473476562272,0.11860499956673853,-0.8341190887376794,0.02066615745298609,-0.15596630357852864,-0.05470876169191512,-0.0857904074127985,-0.05879508073284244,1.0931477657002124,0.0,0.0,1.3926832785093581,-0.3587827071098431,0.00045211356785564106,0.0,0.0,0.3258327434685688,0.7085199414988024,0.0,-0.18209660049637966
26,0.10392231682871761,0.4479836410940961,0.6280845871854102,0.2172850802487078,-2.352456174658578,0.6550581410606943,-1.058176367532488,0.25498753478261105,-0.06039670077134908,0.659133554512587,-1.2008980561616047,0.0,0.0,0.0,-1.0267104472778747,0.4849459456288568,0.0,0.0,-0.324672057776276,-0.2170924438727355,0.0,0.1324547548044972
52,-0.039220559267075926,-0.18858678284680613,0.4014793093718761,0.25326949902824136,-0.8233901165111501,0.4057227828175457,-0.4735057902756589,0.028007461916686335,-0.09744024036270077,0.6573450567253275,-1.5237217574650406,0.0,0.0,0.0,-1.5635190929394231,0.6971423921996956,0.0,0.0,-0.23807205549230473,-0.6283046452474189,0.0,-1.4428858474276782
104,-0.3907875682929916,0.4842331104307347,1.0892429081859092,-2.041941317514402,-2.523863985344844,0.6501851172031042,0.4465620963919318,-0.31293477783480134,-0.5977267389909284,-0.622957266001335,-1.3370758641638762,0.0,0.0,0.0,-1.3624357673606695,-0.5975973628045275,0.0,0.0,-1.6920692040594858,-0.267963926105714,0.0,-0.4517375010368134
105,0.07263275096439699,0.07498630778863428,-0.02156435746969061,0.2765947246761714,-0.39545943437520403,-2.3225654545918855,1.8657330459389823,-0.030911635230766597,1.161596144796392,-0.9625850743249473,-0.22664039255028356,0.0,0.0,0.0,-0.9625850743249473,-0.22664039255028356,0.0,0.0,0.9396281399396024,-2.128853606814835,0.0,-0.7948718249648963
210,0.96639173637538,-0.5157791715483082,-5.2972346032153315,1.0523687175459147,-0.8415239816409729,-2.594418295405504,-0.7343492962688651,0.3865492358823987,-2.8033744749092513,-0.5540319755209199,-1.2653675108322715,0.0,0.0,0.0,-0.5540319755209199,-1.2653675108322715,0.0,0.0,0.04989903092744315,-1.8692985172806271,0.0,-0.5301569440419702
211,-0.4491442934920565,0.0018731221358011016,4.987164598845044,-0.6075087674583368,-0.9843515919867829,0.15422030788839922,0.2177454636610934,-0.46631682642254535,0.6716284590204169,-0.5772758441153278,-0.927781023443683,0.0,0.0,0.0,-0.5772758441153278,-0.927781023443683,0.0,0.0,-1.1463781168193494,-0.3586787507396625,0.0,-0.14081586613747926
53,0.6260707981720909,-0.9691376264116955,2.669653546664456,-1.2486985003677384,-0.6388173168724247,0.34078603546877895,0.2818427807046818,0.7037572470990501,0.0031032198723110545,-0.12219081682384325,0.09772253005027187,0.0,0.0,0.0,2.3887400930148175,-2.413208379788383,0.0,0.0,-0.024468286773569135,0.0,0.0,0.14722591316081968
107,-1.021712968324555,1.5498892917472922,0.4289032708318319,-1.1605327299444508,-0.07078392222329813,-0.11491671120020487,-0.43608656225954523,1.3015494783708321,-0.06180110549090036,0.2894983433551074,0.19779138611832203,0.0,0.0,0.0,0.9701397589449591,-0.4828500294715329,0.0,0.0,0.48728972947342963,0.0,0.0,1.1289987999373148
214,8.291569006475376,-0.10008342493753278,0.18040038008071194,-0.04786855983044342,0.08550750607456177,-0.19113263114605394,-0.2390821395292044,-0.027090489830395394,-0.01617145483636978,0.12750878466998786,0.0,0.0,0.0,0.0,0.0,0.12750878466998786,0.0,0.0,0.12750878466998786,0.0,0.0,-0.001567188473255432
27,0.48353844719930356,0.04527434000821179,-0.18216023440279072,0.03845521513404103,-0.7690663977529693,-0.05471075987459797,0.22639744973218587,-0.020308845583082095,0.15421885052130535,0.22736332657352623,0.4774430369181685,0.0,0.0,1.256789076402324,0.33137206456408025,-0.8833547774747068,0.0,0.0,0.08615944657128934,0.6186469169204045,0.0,1.4920680635202586
54,0.21594708517636188,0.0678650087773684,0.16495380025423553,0.22850717299527812,0.8117990392825433,0.39029493531946385,0.4952735163436992,-0.08892925501787813,0.14768947350478986,0.10819555844488188,-0.27067248109987574,0.0,0.0,0.0,0.7145680987201078,-0.8770450213751048,0.0,0.0,-0.21030129999627176,0.04782437734127565,0.0,0.14587148649600426
108,0.28510708957315517,0.6744392320784075,-0.9155036770712197,-0.02154359902981226,1.7224319452146157,-0.16266968540254248,0.7791428850553916,0.016974997229641877,-1.345283662634397,-0.45799532059512427,0.1959384120147927,0.0,0.0,0.0,0.5718368343434665,-0.8338937429238003,0.0,0.0,-0.85856752585459,0.5965106172742665,0.0,-0.7051903816750866
217,-0.3169405887851917,0.24624330714450351,-0.14884273195792094,-0.2683258539379702,0.0945450834781748,-0.7474753254017851,0.3314985007051821,0.036939896834872886,-0.7856563072861977,-0.10732582595791461,0.241396816355201,0.0,0.0,0.0,-0.10732582595791461,0.241396816355201,0.0,0.0,0.241396816355201,-0.10732582595791461,0.0,0.5331303871187172
109,0.3744442251488387,-0.26439488690879626,0.17210872992279405,-0.20246031909567694,-0.796427423063375,0.5997664362193817,-0.6355034743917188,-0.89932705075117,0.030265287882483928,0.6129571385740358,-0.47635364589913803,0.0,0.0,0.0,0.5572712035805211,-0.4206677109056231,0.0,0.0,0.4380160669552575,-0.30141257428036633,0.0,0.1411386009812312
218,0.7699833993065314,2.298335266201211,-0.11617063894950296,-1.3199742942868629,0.002586506487511586,-0.0045900686194466295,0.4922008601424355,-1.0812595642929428,-0.18058034567536754,-0.21274796520107886,0.17289023715169233,0.0,0.0,0.0,-0.3458259027666668,0.3059681747172754,0.0,0.0,0.17289023715169233,-0.21274796520107886,0.0,2.998076721361954
219,0.04149712990713407,-0.12192013190943943,0.5513690364268707,0.779881758472891,-0.5783108833817932,1.2696875893102824,-0.4671256191994248,-0.44850841998360863,-0.022260176951710942,0.3737170633608363,-0.42914969385142954,0.0,0.0,0.0,0.3737170633608363,-0.42914969385142954,0.0,0.0,0.20922630219005142,-0.26465893268064183,0.0,0.8485516433644351
55,0.4039653400166839,-2.840847182320184,1.02319320499666,0.8723750153987548,-2.592782850277546,-0.9408481361236751,-0.4564481431375773,0.13773998785103597,0.3532339190320365,1.0014078029962774,1.673681938050278,0.0,0.0,2.1107129221971848,-0.769006696718267,1.3333835155676672,0.0,0.0,1.9847930810398247,0.6902966600067514,0.0,0.3264088355859316
7,-0.04290113192763751,-0.07468033929942179,-0.14621674030526138,0.018022067243552396,-0.13298665183710187,-0.33679330047352624,-0.10857107817667204,-0.27635279832493137,0.04280854232078269,-0.09774430166033626,0.1976971127738318,0.0,0.08236247811028413,-0.21855300570103103,0.018134060980810243,0.21800927772343254,0.0,0.0,0.20219707221469987,-0.10224426110120485,0.0,0.9668814699986483
14,-0.14099697118741844,-0.036977652004357625,0.2592648002073124,0.10622655634527217,0.12590581281484617,-0.2465191299630189,0.1735216482344449,-0.21391415485607362,0.3486973108957776,-0.3140209252871671,1.1887884880876989,0.0,0.2898827328828526,0.019468460007371215,0.42170216599783034,0.1437142039124721,0.0,0.0,-0.0014768293992494747,0.876244392199781,0.0,0.058307655204401884
28,-0.903584797687007,-2.7781092150323974,0.041817547791643025,-1.3369769744732776,3.6979370473178568,1.1403703088821202,1.3246434152714304,-0.38817825377560605,-5.930630368086158,-0.43564451835603807,1.6399743882928712,0.0,0.0,2.24648664648395,-1.2030866712889194,0.16092989474181918,0.0,0.0,1.2043298699368286,0.0,0.0,0.1470867076091451
29,0.017337688784379007,-0.1152199952094542,0.1027577224719242,0.2632945890463786,-0.05346704344205049,-0.2282059475386913,0.46022711022527224,-0.1971650517203306,0.25123640722716617,0.17525915277557502,0.43928270958512977,0.0,0.299502560745403,-0.30343026661964767,0.3680281773791248,0.25044139085581746,0.0,0.0,0.0929432873019839,0.5215985750587172,0.0,0.6083066350049493
58,0.5402776866431881,0.008727225742634953,-0.19089389418693564,0.42125985785160863,0.28776384963669926,0.17801302136568475,-0.36776246605062524,0.14288752286222706,-0.9180654210447845,0.10135646372637692,-0.3293432037893651,0.0,0.0,0.5554837405856705,-0.14218583166415735,-0.6412846489845049,0.0,0.0,-0.227986740062989,0.0,0.0,0.161127421617039
116,-1.126349310795159,-0.581210559918224,0.5357941687231602,1.2863388457834344,0.29997023196914774,-0.545262936870006,1.2666302602516792,-0.2688158822713791,0.29666997517120536,-0.583662157419512,0.31921111758533066,0.0,0.0,0.31921111758533066,0.03834278520333565,-0.6220049426228492,0.0,0.0,-0.2644510398341822,0.0,0.0,-0.3668467525398033
232,2.074866821430202,1.7069799603556641,-0.9169394364101101,-0.2373930371048542,2.3607781753848953,0.20771090413950954,-0.19095965099372864,-0.8954681073920375,-2.6158063376130127,0.3477703378804179,0.8545415636083705,0.0,0.0,0.8545415636083705,0.8762853596427166,-0.5285150217623034,0.0,0.0,1.202311901488784,0.0,0.0,-1.2838276542221567
233,0.7344751633055203,-2.5505789155268492,1.623666278946255,0.5142804259979872,-1.3356862702497274,-0.18603375266531666,-0.64361988278215,-0.38259597182501803,2.5686833139572096,0.1893406461020373,-0.5348343563245833,0.0,0.0,-0.5348343563245833,2.991506632107059,-2.802165986005016,0.0,0.0,-0.34549371022254916,0.0,0.0,0.39581518494484924
117,0.3383196707652712,0.0875082013914698,-0.0380519090547972,-0.3921596640464725,0.09560941037372508,1.651337900455016,-1.7177881555080543,0.46447186940520213,-1.031502020693033,0.7211860970603777,-0.6774280268384487,0.0,0.0,0.7036700252623641,-0.18558421907058179,-0.4743277359698548,0.0,0.0,0.04375807022192732,0.0,0.0,0.4049531698113531
235,0.7475753438724,-0.3388864314417868,-0.27537979475427693,-0.3012295139128628,-0.01234679353190842,0.05939222929451626,-0.84946412450501,0.8631811701794054,-0.08387946912530808,0.38756233005396334,-0.22752606242385304,0.0,0.0,-0.4986130898485597,0.05576044957322885,0.6028889079054425,0.0,0.0,0.1600362676301143,0.0,0.0,1.3121550128266102
59,-0.37134878001501936,-0.2308968115204654,-0.44636151517039674,-0.7483242764484985,-0.4355529261824898,-0.11103945554805056,-0.16983821997607923,-0.48917929729076387,0.20927018077735507,0.5863274100342393,0.5411907435888033,0.0,0.45125225840101063,-0.41752398736556157,0.2627547159590239,0.8310351666285727,0.0,0.0,0.9356339328311575,0.19188422079187792,0.0,1.3488017783252393
118,-0.20263280412716175,-0.09112588768137794,-0.2676117810559529,-0.9066413911457895,0.3416651786949984,-0.9709807385805742,0.2568629263042004,-0.13505940219229876,-0.2929140800812058,0.04892101537232867,0.41291035469474563,0.0,0.6865854270545378,-0.9224095660598273,0.7991747378958923,-0.10151922882353323,0.0,0.0,0.5456857488281662,-0.08385437876109274,0.0,-0.044550283687210784
236,0.3804250289641784,-0.42449671514699155,0.15767820545582875,-0.8897189198388462,3.0149412829607063,0.362547926945353,2.092295989986728,0.35435465727949667,2.7431731102023615,-2.7967409359097046,1.3627202649937593,0.0,0.0,-1.327843689777763,-0.20784100607177056,0.10166402493358752,0.0,0.0,-1.252794782097316,-0.181225888818627,0.0,0.006551246555593249
237,-0.1452543556204625,-0.1878518235244303,-0.27678573311557175,0.7206855012256889,-0.2829285717452247,-0.4146746088626137,0.7717901062371306,-0.13005880356487376,-0.2829231034394411,0.4325964579507756,-0.011785202429046524,0.0,0.5049924436602132,0.0,-0.038619863774782,-0.04556132436370499,0.0,0.0,0.37339509243267466,0.047416163089054275,0.0,0.7375448692572989
119,0.4403165354243249,1.64673567718097,-0.9205694869650443,0.7081282130646068,-1.0054689648186732,-0.3796860259486246,-0.08693727033799156,-0.8729418822508469,1.214613300953464,0.6103740892656393,0.8057348427247985,0.0,0.0,0.2697077720459852,-1.2105852780074284,2.3569864379518743,0.0,0.0,0.8587913163779963,0.5573176156124482,0.0,1.877193736049072
238,-1.341559901142852,-2.3738605319051116,-0.42474295697118025,-0.02345186136546769,2.3206658272542646,-0.5919040835790885,0.06305576963098189,-1.636596095245924,-2.219728669321146,0.05812752488672638,0.31883512420694204,0.0,0.0,1.4315682286657108,-2.5866750669260203,1.5320694873540033,0.0,0.0,0.1579909683258707,0.21897168076780008,0.0,0.1021761478126344
239,1.4175831031019173,0.15529867728642047,-1.0723842240661972,0.7090923829082708,-1.4545314322317122,-0.3515003949533184,0.1369990654176809,-0.3051828311584598,1.0873669117043097,0.630819270651868,0.8933380301296567,0.0,0.0,0.21384586293603264,1.3405008975870862,-0.030189459741583376,0.0,0.0,1.7010719627872444,-0.1769146620057176,0.0,1.784692929666843
15,0.6369538578976993,0.09721926152098774,-0.12135218984199313,0.08080735892520825,-0.1398135343947807,-0.05330568895722899,-0.32882546593489365,-2.007682536376177e-05,0.01660034944805117,0.2152312923034672,-0.21513679524497198,0.0,0.0,-0.21513679524497198,-0.002797952264444163,0.21802924456791054,0.0,0.0,0.24123413120229106,-0.2411396341437963,0.0,0.8067826056009295
30,0.19290192683249782,1.3792424470672462,-2.0838018740051347,0.05018873634339154,2.5767586284857096,0.5921581404136412,-0.12820264490923405,0.15604833884838845,0.6413909242294451,-0.11104442448662127,-0.6234396753174272,0.0,0.0,-0.6234396753174272,1.3361756746325792,-1.4472200991192026,0.0,0.0,-1.31281117597222,0.5783270761681785,0.0,-0.3887225716508853
31,0.5063526547287296,0.04352658935564794,-0.08737208647027361,0.04827282513856939,-0.14367063446864725,-0.1881273296604734,-0.19970966596401118,-0.04305579852880638,0.022753964367543185,0.20265386775119107,0.0,0.0,0.0,0.0,0.0010216336890415511,0.20163223406215133,0.0,0.0,0.30433135091078234,-0.10167748315958847,0.0,1.4518089773105407
62,-0.1217808580619007,0.18351794198389773,0.08822046327519184,-0.061581032866379434,0.08660236763104287,-0.2267246057467308,-0.21179305599512052,-0.06518630645668888,-0.035542989325081716,0.3068171437820204,0.0,0.0,0.0,0.0,0.14503104277104434,0.16178610101097438,0.0,0.0,0.07176400424765031,0.23505313953437076,0.0,1.415457708699737
124,0.13126951499285638,0.02662319997998779,0.1349388071311099,0.22020832533222734,0.02853745560835497,-0.15792374058411363,-0.1327726274818433,-0.052194244749003256,-0.012347153414449311,0.24566645920319105,0.0,0.0,0.0,0.0,0.23130793301917546,0.014358526184014923,0.0,0.0,-0.029321028139444073,0.2749874873426348,0.0,0.8850469134046852
248,-0.2234425489087495,-0.6643003340830735,-0.2785571095446309,-0.059237772114454565,-0.4698995859432659,0.2986176120090024,0.549058724644234,-0.03846255024591638,0.5104529156234471,0.18103449099183666,0.0,0.0,0.0,0.0,-0.535993839267662,0.7170283302594992,0.0,0.0,0.18103449099183666,0.0,0.0,-0.1357967051670459
249,0.11858276153830931,-0.011805070614125814,-0.0031652353420558825,-0.8485275339366781,0.03435204386074557,-0.5113906281360239,-0.639683369484492,-0.07248277035590135,-0.03965606449044312,0.34115994267571753,0.0,0.0,0.0,0.0,0.17731404901778222,0.16384589365793614,0.0,0.0,0.15681039102196292,0.18434955165375208,0.0,0.9673159996980435
125,-0.9217860278183226,-3.2475778130147406,0.41311663292421913,-0.2864880731816684,0.8753345118106199,-1.1099854597966048,-1.3884478907826667,-0.15732556827268726,0.6933742160929612,0.7404957287061676,0.0,0.0,0.0,0.0,0.0,0.7404957287061676,0.0,0.0,0.7404957287061676,0.0,0.0,1.2917148212436635
250,-0.29350457047867745,-1.1109843576648073,3.37542903328742,-0.4749888438107105,-5.8274167691047465,0.43002102565036876,0.537900547062895,0.060949719325192254,-0.11133918708429894,-0.2868764900814935,0.0,0.0,0.0,0.0,0.0,-0.2868764900814935,0.0,0.0,-0.2868764900814935,0.0,0.0,-0.32084249447726254
251,0.0167223396123793,0.5948063337710143,0.46378158569092226,1.1529093448912973,0.035332637738207086,-0.6767926427092088,-0.8465798438828391,-0.09592629000429505,0.1254278342226866,0.4515032667524848,0.0,0.0,0.0,0.0,0.0,0.4515032667524848,0.0,0.0,0.4515032667524848,0.0,0.0,3.1895179116830024
63,0.28605045832700426,-0.6258226219080144,0.025028285724353807,0.3512128165197342,-0.23998721228838857,-0.2644969691882502,-0.3308514140853021,-0.037488901874056915,-0.010219466575631542,0.17645174917472617,0.0,0.0,0.0,0.0,1.0453281084234687,-0.8688763592487503,0.0,0.0,0.6925491294368226,-0.5160973802620954,0.0,0.8296429011915103
126,0.2872750310282391,-0.8681489689535816,0.007366978447846134,-2.5574164879574237,1.2909595996737233,0.17872067668803762,0.22355639382179704,0.025331261570919448,-0.7147052000056795,-0.11922849668969453,0.0,0.0,0.0,0.0,0.0,-0.11922849668969453,0.0,0.0,0.3253073527008462,-0.4445358493905355,0.0,-0.1383577356245822
127,0.02778457415324807,-0.42278750269652177,0.018501700674432405,0.5804414114712767,-0.3148804806795889,-0.30457274652941074,-0.3809810153604518,-0.04316910641054094,0.0908281356388025,0.2031871822236877,0.0,0.0,0.0,0.0,0.8143350921959518,-0.6111479099722675,0.0,0.0,-0.2077877637152171,0.4109749459389018,0.0,1.7805494938407294
254,0.21232480915151228,0.882249430376397,-0.7084047221562533,-0.4891504098845019,-0.2465011494946822,-0.024329384154981183,-0.03043290505824697,-0.0034483642593015015,-2.2751140414045157,0.016230667609030115,0.0,0.0,0.0,0.0,0.0,0.016230667609030115,0.0,0.0,0.016230667609030115,0.0,0.0,-0.7842742754275493
255,-0.5990171884982104,0.9732591124669503,-0.27659003296147394,-0.11448894688573888,-0.5868604055227495,-0.4681819679047072,-0.5856349379197122,-0.06635852164147273,0.07110159371599556,0.3123344945024813,0.0,0.0,0.0,0.0,-0.5092273725712578,0.821561867073737,0.0,0.0,0.10224829606355808,0.21008619843892587,0.0,2.9823757577875094
