1,0.21282794719930806,-0.00168613741925143,-0.05791813783811536,0.20262290857961063,0.06986079953249005,-0.01731487412959042,-0.36405272581918685,0.051032369868172694,0.007257677595988933,0.16704647033546519,-0.39970922105263934,0.19807778690514213,0.00800206549737114,0.2508910026257974,-0.44786409762831175,-0.24176950811717712,0.19807778690514213,0.0,0.2571576162205583,-0.6638614926205033,-0.024036661222365724,-0.2972545283768476
2,0.3852109452685827,0.08511333760068274,0.027843665682803338,-0.00401247403762033,0.20436716258081208,-0.011805883462678142,0.048233895118502394,0.06023546188732988,0.0413435601426679,0.06928343835565792,-0.633212513228447,0.12314084663918445,0.0,-0.036651001471072565,-0.3886855826536079,-0.26173333738728655,0.12314084663918445,0.0,0.09270675704224818,-0.7526193438749081,-0.027157334679303046,-1.408752625140668
4,0.8123777007636498,0.04024766054057732,0.08499753170834073,0.31826259733553713,0.3011146649586375,0.06193479360397199,0.03505798125705255,0.1257183555939506,0.07271118880823571,-0.08664821315729128,-0.4962711805044613,-0.0016212330236956246,0.0,-0.018112297872492574,-0.37865276948278276,-0.1845330932827802,-0.0016212330236956246,0.0,0.2917310476746105,-0.839796715059138,-0.03323249325352935,-1.6310492890423556
8,0.5197949741942304,0.011159363656382875,-0.12379777949015315,0.49639924915899475,0.10441839248106043,-0.18795908676759396,0.12018197703336359,0.17879403202780278,0.083819631678361,-0.13609631128360233,-0.5248052263292556,-0.002300234428703452,0.0,-0.03608476009969677,-0.3584141309886852,-0.26410241209577556,-0.002300234428703452,0.0,0.3308146506122868,-0.9720215572719767,-0.017394396524471643,-0.9253543792752663
9,-0.006248088054762535,-0.0673051171391458,0.06921104194759929,0.11690385582288276,0.5546212728462558,0.14228069884439773,-0.16888047631825848,-0.0015067016530503387,0.08937615789296599,-0.039724004941587954,-0.7143595001366367,0.0,0.0,-0.03164763694938431,-0.26450093127237917,-0.45793493685645426,0.0,0.0,-0.2656032306582591,-0.42825156250874385,-0.06022871191122449,-1.384615325049248
19,-0.3514208120219574,0.016550696346816902,-0.13650807254278746,0.054112863133378306,-0.08158032598799209,0.016848451650576857,-0.023006937980675015,0.02588725637403478,-0.044921759643206466,0.006662812808640603,-0.4026795217008723,0.0,0.0,0.0,-0.12110909722770374,-0.2749076116645329,0.0,0.0,0.0,-0.3960167088922355,0.0,-0.8198597982797223
5,0.15869802637189823,0.08289894273470352,-0.030432518922713727,0.06081019263936491,0.10647098590432803,-0.12474859959391434,0.2236975552831312,-0.004811259658259826,-0.09586636128427217,0.09586729773892068,-0.4941503038089585,0.19156069914985874,0.0,-0.13315396439607613,-0.22631493846719647,-0.23037480235662253,0.19156069914985874,0.0,-0.11447459036150735,-0.4753691148583874,0.0,-0.8352887988485167
10,0.07270797084414996,-0.03146491485823976,0.024439643785875324,0.05965993638934831,0.01112525414116839,0.1879715505134315,0.06775244026382671,0.03225896031681471,-0.1665366927451241,-0.10453138038574117,-0.6079398840855488,0.08765427960183325,0.0,-0.20097138614013094,-0.2784079634854319,-0.3207461944475673,0.08765427960183325,0.0,-0.33057749955342114,-0.4695480445197068,0.0,-0.9277858700049486
20,-0.05164395459463827,-0.05326496025210482,-0.07476377563713658,0.1760003353987906,0.051465709730649525,0.015335858587273729,0.06081772342089957,0.031479831104266116,-0.5258047678120613,-0.30626243091286426,-0.49733138236373575,-0.0809263760852773,0.0,-0.0789071212750556,-0.11991221003758791,-0.5238481058786811,-0.0809263760852773,0.0,-0.44271547561498703,-0.27995196157633806,0.0,-1.3823269892805277
41,-0.13791677690305945,-0.09622534115350416,0.010977020419663721,0.15482314324582014,0.0504387306038075,0.013429943516243856,0.22291435027114176,0.021092300776162757,0.09226578179063141,-0.2548952662065169,-0.47260252677441245,0.0,0.0,-0.17802447733806667,-0.18014282298323675,-0.36933049265962564,0.0,0.0,-0.3716926974437041,-0.35580509553722617,0.0,-0.968930475070646
83,-0.47425359460396416,1.0311023984457588,-0.16430508800234359,-0.1239136832658972,-0.7768900190724716,-1.1695835968806485,0.17810997703622078,-0.3102534344816692,-0.04186180949752053,0.0,0.3300722481140513,0.0,0.0,-1.8854773438992771,1.053612877766853,1.1619367142464663,0.0,0.0,0.17142669441931738,0.1586455536947354,0.0,-0.3091907537924078
167,-6.485471490808826,0.9298429956446331,1.1365477336402365,-0.06421413391081583,-1.4095807126367608,-0.061161153969707824,0.09229955574570571,-0.01286492011491878,-0.021693486707635542,0.0,0.17104893488767103,0.0,0.0,0.0,-0.07419901409126506,0.24524794897893495,0.0,0.0,-0.0567392970506215,0.22778823193829228,0.0,0.09898058677272414
21,0.08481894343035089,0.17291843425207645,0.6326099784749347,-0.09507862918785394,-0.006303461763814444,0.09627467527506706,0.0007008737650795496,-0.06788883036752087,2.13412390568337,-0.29369884719103684,-0.11286952738055314,0.5772654787695349,0.0,-0.1354356981263583,-0.7470359979989972,-0.1013621572157597,0.5772654787695349,0.0,-0.5756129729199818,-0.4082208804211444,0.0,-0.2817024097276091
42,0.006573634911693056,0.47707750783609715,0.39566351940095507,0.7765388368623105,-0.3362871235141503,0.823288870372734,-0.07130297251535435,0.01670737767770231,0.21271858485253492,-1.2644759572893174,-0.6236729019390367,0.0,0.0,-0.26639320071156736,-1.103792609931466,-0.5179630485853134,0.0,0.0,-1.2970792815042853,-0.5910695777240749,0.0,-0.8809107083202087
84,0.08402787755500239,0.26949072366568694,-0.12807426928541646,0.11875471029126103,1.436428280347947,0.11591545598232078,-0.13000580171908407,0.1083072148428082,0.2781359103459055,-1.5413993352987938,-0.8401079230702787,0.0,0.0,-0.19448899886486176,-1.122142727420009,-1.0648755320842023,0.0,0.0,-0.8278392636416871,-1.5536679947273773,0.0,-2.0222343866304526
169,2.146627658352796,-4.621682785816015,2.482710453501707,-0.14690465905167754,0.25390536096850175,-1.7772736313951347,0.2111565467234356,-0.17857879100357207,-0.04962886010194202,0.0,0.3913139355850342,0.0,0.0,0.0,1.643283150023377,-1.2519692144383412,0.0,0.0,-2.1922891612864954,2.5836030968715167,0.0,-1.101138652822205
85,1.9385945081615525,-5.267581140417018,0.4839814759605911,0.20208493807616637,-0.21703325096914228,-1.932099372707559,0.7361679888753614,0.3380173731831844,-0.2563456194565586,0.47307659225053217,1.5481588947922935,0.0,0.0,-3.501532052323634,2.746770301297332,2.775997238069127,0.0,0.0,2.2736937090467872,-0.25245822200397494,0.0,-0.031210679874878133
11,-0.05685978188370957,0.02328824236990684,0.019666923918273394,0.005887713354671167,-0.010759049512859335,-0.11012726004304524,0.016327569604456818,-0.06166105269102802,-0.059411755348911605,-0.3077136692044086,-0.1052055199467808,-0.04790311869369921,0.0,-0.12779193721517523,-0.13025666132127553,-0.10696747192103967,-0.04790311869369921,0.0,-0.38398732818434195,0.018971257726846782,0.0,-0.10723114117085233
3,0.047637695859785695,-0.20252751283287393,-0.23558593790939183,0.24809241883279484,-0.1673491331667319,-0.10274763088413293,-0.23211513759121263,-0.006184756604763385,0.008435301295700463,-0.20950140116125443,-0.04164993212072373,0.0,0.04211103529892702,-0.12142267706213102,-0.06864572752017364,-0.10319396399859991,0.0,0.0,0.35562048979396615,-0.6067718230759451,0.0,0.3537353412127992
6,-0.010108787422660312,-0.05863238773099551,0.09658482158326356,0.056784400568118024,0.035813385154785445,0.11161389619735787,0.02382710392303946,-0.012716970324131932,-0.04495891713209058,0.1806299914409573,0.1538805155124076,0.0,0.0,1.1077481098366941,-0.15937419885063583,-0.6138634040326928,0.0,0.0,0.23541132213944713,0.09909918481391733,0.0,-0.2606526414890292
12,0.24452318242342203,-0.32907185789875226,0.11766813563480345,0.11714286495410545,0.12947483570878346,-0.5135170068737128,-0.3056948053217866,0.14744598573389606,-0.03487515164532174,-0.36211626873865993,-0.8697273301544345,0.0,0.0,0.0,-0.7373985116801781,-0.49444508721291475,0.0,0.0,-0.47604475576341443,-0.7557988431296787,0.0,-0.588662879396815
24,-0.1506037425780444,0.14290125390284297,0.47362141849514977,-0.22367317856343097,-0.7572146170220441,0.2812909767973098,-0.2367139752134262,-0.455228767619187,0.13407718961719697,-1.0120305934656666,0.046092298400783306,0.0,0.0,0.0,-0.4539132551334782,-0.5120250399313986,0.0,0.0,-0.14725370269019378,-0.8186845923746894,0.0,-0.8663650891281159
49,1.3164044561313601,-1.3136976489043828,0.37541568544859094,0.45112606723461013,-0.43686074041118844,-0.3684611711985644,-1.2082703126166388,0.15685587751858054,-0.1414873515338943,-0.26985889937131674,-0.4684261015996974,0.0,0.0,0.0,0.0,-0.738285000971014,0.0,0.0,0.2018992148059101,-0.9401842157769202,0.0,0.2755273053167684
25,0.20344952563446553,0.1312946940675906,0.038439640791840736,-0.14711007619486946,-0.0008601087639883084,0.0008581539829250959,-0.49239091650138384,0.21632310621651504,-0.15269025874548794,0.049323243231093175,-0.7411080283159196,0.0,0.0,0.0,0.0,-0.691784785084829,0.0,0.0,-0.9232941015366236,0.2315093164517967,0.0,-0.5889639193082137
51,0.21942287019201154,0.22436559004276965,0.03983402351283552,-0.0033720431701421095,0.006073536686908994,-0.04345532956779921,-0.4014167538665574,0.13609116460001347,0.4994554388447846,0.03816755268943692,-0.6112789163128708,0.0,0.0,0.0,0.0,-0.5731113636234324,0.0,0.0,-0.49091220179482137,-0.08219916182860931,0.0,-0.2705083226312929
103,0.181917441142223,-0.21451036696751538,0.24520658040481474,-0.21394031936430297,0.1483729844936644,-0.4330425809230506,-0.3719322763993893,0.1409411549623724,0.3704577584448601,0.042257388109309915,-0.5424271809679949,0.0,0.0,0.0,0.0,-0.5001697928586801,0.0,0.0,-0.4228482920681137,-0.07732150079056803,0.0,0.1684557953196627
206,-0.2812123970444375,-0.5783697264399839,0.22154300053317325,-0.7989168761177552,1.0138779817692682,-1.0273705846064625,1.0122029711184732,-0.15522115500802844,0.36720228621271545,-0.2696491131570477,0.9388355702949162,0.0,0.0,0.0,0.0,0.6691864571378696,0.0,0.0,-0.2601942590930589,0.9293807162309301,0.0,-0.07149444860982401
13,-0.16649181188560624,0.14976311834839895,-0.19972473476562266,0.1186049995667386,-0.8341190887376795,0.020666157452986153,-0.15596630357852886,-0.0547087616919151,-0.08579040741279849,-0.0587950807328424,1.0931477657002127,0.0,0.0,1.3926832785093581,-0.35878270710984334,0.0004521135678555924,0.0,0.0,0.3258327434685685,0.7085199414988022,0.0,-0.18209660049637977
26,0.10392231682871775,0.44798364109409633,0.6280845871854102,0.2172850802487078,-2.352456174658577,0.6550581410606939,-1.058176367532488,0.25498753478261116,-0.06039670077134907,0.6591335545125868,-1.2008980561616058,0.0,0.0,0.0,-1.026710447277875,0.48494594562885684,0.0,0.0,-0.32467205777627645,-0.2170924438727357,0.0,0.13245475480449706
52,-0.039220559267075863,-0.18858678284680622,0.4014793093718762,0.25326949902824125,-0.8233901165111502,0.40572278281754565,-0.4735057902756587,0.02800746191668637,-0.09744024036270078,0.6573450567253274,-1.523721757465041,0.0,0.0,0.0,-1.5635190929394227,0.6971423921996955,0.0,0.0,-0.23807205549230498,-0.6283046452474188,0.0,-1.4428858474276782
105,0.0726327509643968,0.07498630778863435,-0.02156435746969026,0.2765947246761712,-0.39545943437520314,-2.3225654545918846,1.8657330459389823,-0.030911635230766742,1.1615961447963925,-0.9625850743249477,-0.22664039255028404,0.0,0.0,0.0,-0.9625850743249477,-0.22664039255028404,0.0,0.0,0.9396281399396031,-2.1288536068148343,0.0,-0.7948718249648954
210,0.96639173637538,-0.5157791715483082,-5.297234603215329,1.0523687175459149,-0.841523981640973,-2.594418295405506,-0.7343492962688641,0.38654923588239926,-2.8033744749092513,-0.554031975520921,-1.2653675108322715,0.0,0.0,0.0,-0.554031975520921,-1.2653675108322715,0.0,0.0,0.04989903092744289,-1.8692985172806273,0.0,-0.5301569440419707
27,0.4835384471993037,0.045274340008211796,-0.18216023440279075,0.03845521513404092,-0.7690663977529693,-0.05471075987459794,0.22639744973218562,-0.020308845583082078,0.15421885052130535,0.22736332657352606,0.4774430369181683,0.0,0.0,1.256789076402324,0.3313720645640803,-0.883354777474707,0.0,0.0,0.08615944657128938,0.6186469169204045,0.0,1.492068063520259
54,0.21594708517636196,0.06786500877736841,0.16495380025423556,0.228507172995278,0.8117990392825428,0.39029493531946347,0.49527351634369954,-0.0889292550178781,0.14768947350478986,0.10819555844488198,-0.27067248109987563,0.0,0.0,0.0,0.7145680987201084,-0.8770450213751046,0.0,0.0,-0.21030129999627206,0.04782437734127558,0.0,0.1458714864960043
7,-0.04290113192763748,-0.07468033929942179,-0.14621674030526136,0.0180220672435524,-0.13298665183710187,-0.3367933004735262,-0.10857107817667214,-0.2763527983249313,0.04280854232078268,-0.09774430166033624,0.1976971127738319,0.0,0.08236247811028415,-0.21855300570103103,0.018134060980810208,0.21800927772343248,0.0,0.0,0.20219707221469976,-0.10224426110120491,0.0,0.9668814699986483
14,-0.14099697118741844,-0.03697765200435762,0.2592648002073124,0.10622655634527217,0.12590581281484617,-0.24651912996301886,0.17352164823444494,-0.21391415485607362,0.3486973108957776,-0.3140209252871672,1.1887884880876987,0.0,0.2898827328828526,0.019468460007371277,0.42170216599783045,0.14371420391247228,0.0,0.0,-0.0014768293992493855,0.8762443921997811,0.0,0.05830765520440202
29,0.017337688784378975,-0.11521999520945415,0.10275772247192426,0.2632945890463785,-0.05346704344205046,-0.22820594753869117,0.4602271102252723,-0.19716505172033055,0.2512364072271661,0.1752591527755754,0.4392827095851298,0.0,0.29950256074540305,-0.3034302666196475,0.36802817737912485,0.25044139085581757,0.0,0.0,0.09294328730198384,0.5215985750587172,0.0,0.6083066350049493
59,-0.3713487800150194,-0.23089681152046534,-0.44636151517039674,-0.7483242764484984,-0.43555292618248986,-0.11103945554805059,-0.16983821997607926,-0.4891792972907639,0.20927018077735504,0.586327410034239,0.5411907435888035,0.0,0.45125225840101063,-0.41752398736556173,0.2627547159590238,0.8310351666285726,0.0,0.0,0.9356339328311576,0.19188422079187806,0.0,1.3488017783252393
118,-0.20263280412716178,-0.09112588768137792,-0.26761178105595296,-0.9066413911457893,0.3416651786949985,-0.9709807385805743,0.25686292630420077,-0.13505940219229892,-0.2929140800812058,0.048921015372328444,0.41291035469474546,0.0,0.6865854270545378,-0.9224095660598274,0.7991747378958923,-0.10151922882353348,0.0,0.0,0.5456857488281667,-0.08385437876109234,0.0,-0.04455028368721128
236,0.3804250289641784,-0.4244967151469914,0.15767820545582872,-0.8897189198388469,3.0149412829607067,0.3625479269453542,2.092295989986731,0.3543546572794966,2.7431731102023633,-2.7967409359097024,1.3627202649937602,0.0,0.0,-1.327843689777763,-0.2078410060717709,0.1016640249335871,0.0,0.0,-1.2527947820973164,-0.18122588881862692,0.0,0.0065512465555928046
15,0.6369538578976991,0.09721926152098775,-0.12135218984199311,0.0808073589252082,-0.13981353439478064,-0.05330568895722882,-0.32882546593489365,-2.0076825363761747e-05,0.016600349448051162,0.21523129230346738,-0.21513679524497198,0.0,0.0,-0.21513679524497198,-0.0027979522644442493,0.21802924456791042,0.0,0.0,0.24123413120229126,-0.24113963414379605,0.0,0.8067826056009293
31,0.5063526547287296,0.04352658935564792,-0.08737208647027363,0.048272825138569404,-0.14367063446864725,-0.18812732966047332,-0.19970966596401116,-0.04305579852880639,0.022753964367543192,0.20265386775119112,0.0,0.0,0.0,0.0,0.001021633689041598,0.20163223406215136,0.0,0.0,0.3043313509107824,-0.10167748315958845,0.0,1.4518089773105407
62,-0.1217808580619006,0.18351794198389773,0.08822046327519187,-0.06158103286637948,0.08660236763104288,-0.22672460574673123,-0.211793055995121,-0.06518630645668883,-0.03554298932508171,0.30681714378201946,0.0,0.0,0.0,0.0,0.1450310427710443,0.16178610101097424,0.0,0.0,0.07176400424764996,0.23505313953437046,0.0,1.415457708699737
124,0.13126951499285644,0.026623199979987796,0.13493880713110987,0.2202083253322274,0.02853745560835497,-0.15792374058411315,-0.1327726274818437,-0.05219424474900324,-0.012347153414449318,0.24566645920319088,0.0,0.0,0.0,0.0,0.2313079330191755,0.014358526184014925,0.0,0.0,-0.029321028139444073,0.2749874873426348,0.0,0.885046913404685
249,0.11858276153830952,-0.011805070614125831,-0.003165235342055837,-0.8485275339366782,0.034352043860745585,-0.511390628136025,-0.6396833694844913,-0.07248277035590123,-0.03965606449044313,0.34115994267571753,0.0,0.0,0.0,0.0,0.17731404901778222,0.16384589365793595,0.0,0.0,0.156810391021963,0.18434955165375225,0.0,0.9673159996980434
